{"orig_sr": 22050, "nn_sr": 8820, "UP": 2, "DOWN": 5, "resample_width": 37, "resample_kernel": [[-0.0, -9.810455594561063e-07, -0.0003194202727172524, -0.0005372273735702038, 0.0019198415102437139, 0.004530744627118111, -0.0010337668936699629, -0.01228467095643282, -0.009139060974121094, 0.01670634187757969, 0.03241388872265816, -0.0030160974711179733, -0.06435173749923706, -0.05355273187160492, 0.09265469014644623, 0.29824215173721313, 0.3959999978542328, 0.29824215173721313, 0.09265469014644623, -0.05355273187160492, -0.06435173749923706, -0.0030160974711179733, 0.03241388872265816, 0.01670634187757969, -0.009139060974121094, -0.01228467095643282, -0.0010337668936699629, 0.004530744627118111, 0.0019198415102437139, -0.0005372273735702038, -0.0003194202727172524, -9.810455594561063e-07, -0.0, -0.0, -0.0, -0.0, -0.0], [-0.0, -0.0, -0.0, -0.0, -7.246501627378166e-05, -0.0006059236475266516, 0.00029350919066928327, 0.0037264933343976736, 0.0031050716061145067, -0.006966037210077047, -0.0138343945145607, 0.002028408693149686, 0.029097337275743484, 0.02175670675933361, -0.03569287434220314, -0.07444436848163605, 0.003736648242920637, 0.1981504112482071, 0.36995643377304077, 0.36995643377304077, 0.1981504112482071, 0.003736648242920637, -0.07444436848163605, -0.03569287434220314, 0.02175670675933361, 0.029097337275743484, 0.002028408693149686, -0.0138343945145607, -0.006966037210077047, 0.0031050716061145067, 0.0037264933343976736, 0.00029350919066928327, -0.0006059236475266516, -7.246501627378166e-05, -0.0, -0.0, -0.0]], "nfft": 1024, "hop": 256, "nbins": 513, "Tdown": 17640, "est_samples": 44100, "app_samples": 11025, "hop_samples": 11025, "out_len": 2048, "num_mics": 4, "secondary": [-0.004124239087104797, 0.003630605060607195, -0.01536713819950819, 0.006246690638363361, -0.03793731704354286, 0.019238844513893127, -0.003283698810264468, 1.8035591840744019, 2.4027791023254395, -1.7423810958862305, -4.267080307006836, -1.5880942344665527, 2.752182722091675, 3.5647029876708984, -0.3224804103374481, -2.9608566761016846, -1.666371464729309, 0.9996210932731628, 1.7893414497375488, 0.4094466269016266, -0.853465735912323, -0.9484294652938843, -0.05512746050953865, 0.46830710768699646, 0.4785425364971161, -0.009908752515912056, -0.3534061014652252, -0.29257309436798096, 0.0847974419593811, 0.27187594771385193, 0.10186026990413666, 0.030799316242337227, -0.079722560942173, -0.13861888647079468, -0.17392192780971527, -0.07825177907943726, 0.16007933020591736, 0.2360338568687439, 0.04576684907078743, -0.13474686443805695, -0.15996742248535156, 0.038634292781353, 0.12379060685634613, 0.07606440037488937, -0.04391749948263168, -0.08985866606235504, 0.0033299836795777082, 0.06832622736692429, 0.027519937604665756, -0.009008442051708698, -0.03894947096705437, -0.017386246472597122, 0.018908653408288956, 0.010931212455034256, 0.018723146989941597, 0.004444240592420101, 0.07327844947576523, 0.026194468140602112, -0.11426836997270584, -0.08022523671388626, 0.008375085890293121, 0.11057260632514954, 0.09419965744018555, 0.007579599041491747, -0.06289481371641159, -0.0625510960817337, 0.0002440104726701975, -0.008889330551028252, 0.05454431474208832, -0.0005704982904717326, -0.000807592470664531, 0.007639281917363405, 0.005456466693431139, -2.5349532734253444e-05, -0.02069527842104435, 0.011162551119923592, 0.004433372523635626, 0.02757100760936737, -0.02163385972380638, -0.0035247146151959896, 0.0004554221814032644, 0.020435867831110954, 0.001057859743013978, -0.03389817848801613, 0.005098698660731316, 0.010738995857536793, 0.032968439161777496, -0.0008445706334896386, -0.0031822712626308203, -0.026461228728294373, -0.013891399838030338, 0.013969690538942814, 0.01581749878823757, 0.03078656643629074, -0.002287771552801132, -0.013917706906795502, -0.026652412489056587, -0.011630878783762455, 0.012516656890511513, 0.029618706554174423, 0.008978537283837795, -0.015559632331132889, -0.02344917692244053, -0.02314160205423832, 0.02701939269900322, 0.025837386026978493, 0.0193952526897192, -0.00882783904671669, -0.02164848893880844, 0.004238249734044075, 0.0036804312840104103, 0.0061608897522091866, -0.005618295166641474, 0.005206536967307329, 0.002696939976885915, -0.007503872271627188, -0.013612200506031513, -0.0007152556208893657, 0.011874577030539513, 0.010044158436357975, 0.002518730703741312, -0.015321791172027588, -0.0010624892311170697, 0.00790328998118639, 0.001597933005541563, 0.011983714997768402, -0.00678827753290534, 0.0006153066642582417, -0.006357989273965359, -0.01639385335147381, 0.012984479777514935, 0.012802810408174992, 0.014799903146922588, -0.014828854240477085, -0.01727583259344101, -0.009160526096820831, 0.013973006047308445, 0.01992965117096901, -0.00559168541803956, -0.01264442503452301, -0.010278628207743168, 0.010241757147014141, 0.014928190968930721, 0.00972004048526287, -0.008335204795002937, -0.006638006307184696, -0.001798161189071834, 0.0017017843201756477, 0.0016249147010967135, -0.004984703380614519, 0.0021256995387375355, 0.0029355743899941444, 0.008040917105972767, 0.004470458719879389, -0.008031723089516163, -0.009399178437888622, -0.00753364060074091, 0.006014347542077303, 0.016839925199747086, 0.009875232353806496, -0.0013831424294039607, -0.015526375733315945, -0.01258937269449234, -0.0007722627487964928, 0.007941393181681633, 0.01198920700699091, 0.003059191396459937, -0.0002456492220517248, -0.0037335690576583147, -0.007614717353135347, -0.006673556286841631, 0.0007678557885810733, 0.009748573414981365, 0.005216953810304403, -0.0017615255201235414, -0.006032976321876049, -0.00030808313749730587, 0.0034216244239360094, 0.00010495213064132258, -0.0012945093913003802, -7.853923307266086e-05, 0.005727171432226896, 0.004201546777039766, -0.00047755197738297284, -0.005310618318617344, -0.007327490486204624, -0.001264799851924181, 0.003543660044670105, 0.004395794589072466, 0.004119244869798422, -0.0013127352576702833, -0.005572577007114887, -0.004089348018169403, 0.0001042977164615877, 0.004748267587274313, 0.00397416390478611, -0.0030152166727930307, -0.005340781062841415, -0.0005970944184809923, 0.0012382710119709373, 0.0014351452700793743, 0.0010933761950582266, 0.0020297174341976643, 0.0005302343633957207, -0.0015320087550207973, -0.0027599413879215717, 0.0009454985847696662, 0.00444278446957469, 0.00037998188054189086, -0.0007520598010160029, -0.0032028360292315483, -0.0010951237054541707, -0.0021431481000036, -0.0022781123407185078, -0.00030422970303334296, 0.0031147440895438194, 0.0043602194637060165, -0.0007588973385281861, -0.0013492051512002945, -0.002695775358006358, -0.0011755061568692327, -0.0016582590760663152, -0.0009587167878635228, 0.0024014723021537066, 0.0031642992980778217, -0.0030226658564060926, -0.003950958605855703, -0.0031628538854420185, 0.0019075617892667651, 0.0042129624634981155, 0.001377554377540946, -0.0006391238421201706, -0.0039011924527585506, -0.009382550604641438, -0.017580417916178703, 0.019896473735570908, 0.02770213596522808, 0.0003873262321576476, -0.020322954282164574, -0.01484402921050787, 0.006671491079032421, 0.00981462188065052, -0.005547496490180492, -0.029404757544398308, 0.018005600199103355, 0.036506734788417816, 0.011303011327981949, -0.025012513622641563, -0.03429325297474861, 0.0005886862054467201, 0.016373489052057266, 0.01612846367061138, -0.00796253327280283, -0.011053858324885368, 0.0034277269151061773, 0.008875934407114983, 0.0023075512144714594, -0.018376262858510017, -0.011554665863513947, 0.015232579782605171, 0.01882714405655861, 0.009223607368767262, -0.010353612713515759, -0.0036979103460907936, 0.006105937063694, -0.028824036940932274, -0.0257464237511158, 0.022571727633476257, 0.041153986006975174, 0.022666022181510925, -0.022430196404457092, -0.016722746193408966, -0.010065460577607155, -0.038912855088710785, 0.0012819344410672784, 0.03916488587856293, 0.03834563121199608, 0.005793971009552479, -0.04126827046275139, -0.0237151850014925, 0.002193555235862732, 0.016708170995116234, 0.02001691609621048, -0.0014138525584712625, -0.014557184651494026, -0.011976594105362892, 0.005149597302079201, 0.016840491443872452, 0.0063825082033872604, -0.016337823122739792, -0.014810104854404926, -0.004030113108456135, 0.012410585768520832, 0.021951448172330856, 0.012623204849660397, -0.012486817315220833, -0.042022593319416046, -0.02516511268913746, 0.01780664175748825, 0.051406797021627426, 0.03071877732872963, -0.024427242577075958, -0.037797581404447556, -0.02092929370701313, 0.017705658450722694, 0.024078980088233948, 0.008735907264053822, -0.004520431160926819, -0.014957672916352749, -0.013080088421702385, -0.0032411508727818727, 0.018309617415070534, 0.014977999962866306, -0.00046537883463315666, -0.017489107325673103, -0.008128976449370384, 0.002018742496147752, 0.008043724112212658, 0.008639389649033546, -0.0005100969574414194, -0.008036814630031586, -0.010247979313135147, 0.00038331799441948533, 0.0077311936765909195, 0.009413933381438255, 0.002427306491881609, 0.0006234836764633656, -0.008167268708348274, -0.009490043856203556, -0.004597019869834185, 0.00043195049511268735, 0.008293237537145615, 0.006469163112342358, 0.0013698560651391745, -0.0015867468900978565, -0.0058622779324650764, -0.005353161599487066, -0.0019604782573878765, 0.0020527453161776066, 0.005459266249090433, -4.130788875045255e-05, -0.0014251039829105139, 0.0012149822432547808, 0.00011375043686712161, -0.0016067043179646134, -0.004339876584708691, -0.0033755723852664232, 2.698954995139502e-05, 0.0025062302593141794, 0.0026157854590564966, 0.0004169323365204036, 0.0020104162395000458, -4.8703004722483456e-05, -0.0027182491030544043, -0.008587860502302647, -2.54965325439116e-05, 0.010165385901927948, 0.0037235289346426725, -0.0019497931934893131, -0.0034768010955303907, -0.0001989887678064406, -0.0016254880465567112, 0.0021886294707655907, -0.0009434020612388849, -0.004986284300684929, 0.0035824740771204233, 0.005039663519710302, -0.000313725380692631, -0.004684250336140394, -0.0015505532501265407, 0.0009942841716110706, -0.0008711601258255541, -0.0016953531885519624, -0.00010875453881453723, 0.0048072547651827335, 0.006600240711122751, 0.0037816131953150034, -0.0068830158561468124, -0.0076673440635204315, -0.0003975696163251996, 0.0020156598184257746, 0.004437494557350874, 0.004261856433004141, 0.006295416504144669, -0.004782128147780895, -0.011154391802847385, -0.007711521349847317, -0.0010808114893734455, 0.010811486281454563, 0.004466442856937647, -0.002733549801632762, -0.0036462440621107817, 0.006121737416833639, 0.006196108181029558, -0.01070405449718237, -0.00818859227001667, 0.0028093489818274975, 0.006649946793913841, 0.010010660625994205, 0.007791586220264435, -0.005907987244427204, -0.008292640559375286, -0.007959464564919472, -0.001687441486865282, 0.005835470277816057, 0.008315659128129482, 0.007674485445022583, -0.004739260766655207, -0.01284022442996502, -0.009889797307550907, -0.0006470826920121908, 0.009115147404372692, 0.012576890178024769, 0.004482101183384657, -0.0018645341042429209, -0.00617830129340291, -0.00508321076631546, -0.00018167194502893835, 0.007717777509242296, 0.0018025857862085104, -0.00687067024409771, -0.0030928952619433403, 0.0075465659610927105, 0.0071008410304784775, -0.008067389950156212, -0.01115757878869772, -0.003916723188012838, 0.01126694306731224, 0.00856101792305708, -0.0045453933998942375, -0.004294861573725939, 0.001332129817456007, 0.005064303521066904, -0.0011282749474048615, -0.010148248635232449, -0.002460411749780178, 0.007804485969245434, 0.006139389239251614, -0.0009423073497600853, -0.006743950303643942, 0.0008327485993504524, 0.005894653964787722, -0.004149214364588261, -0.0042242263443768024, -0.0006953401607461274, 0.00685378210619092, 0.0007212058990262449, -0.015305432491004467, -0.002820997964590788, 0.015335752628743649, 0.01572258211672306, -0.007836274802684784, -0.017785359174013138, -0.003935065120458603, 0.012067563831806183, 0.007143903523683548, -0.007253970485180616, -0.004491798579692841, 0.00045209869858808815, 0.0019148780265823007, -0.0028316802345216274, -0.001619510119780898, 0.010212508030235767, 0.008039966225624084, -0.008025332354009151, -0.013931689783930779, -0.0017203467432409525, 0.014384714886546135, 0.009244376793503761, -0.004709357861429453, -0.013466501608490944, -0.005396344233304262, 0.009842370636761189, 0.006467578466981649, 0.002296257298439741, -0.005450401455163956, -0.005336243659257889, 0.00035028933780267835, 0.0023272335529327393, 0.009344462305307388, -0.003733633551746607, -0.01583835855126381, -0.002976065967231989, 0.02210230566561222, 0.01602405495941639, -0.014626065269112587, -0.02547699585556984, -3.154947762595839e-06, 0.023346034809947014, 0.0034523061476647854, -0.017014838755130768, -0.0010556260822340846, 0.018378959968686104, 0.0040136282332241535, -0.016188304871320724, -0.012390497140586376, 0.010953920893371105, 0.00921874213963747, 0.007327155210077763, -0.007084445562213659, -0.006754642352461815, 0.003648360027000308, 0.0006809946498833597, 0.0032830368727445602, -0.013893160037696362, -0.006129955407232046, 0.0048006316646933556, 0.02070922777056694, 0.006485947407782078, -0.013878482393920422, -0.011288583278656006, -0.0013613519258797169, 0.011389264836907387, -0.0002551792422309518, -0.002780867274850607, 0.0015582781052216887, 0.007029764354228973, -0.0019772653467953205, -0.011672602035105228, -0.0006491628009825945, 0.010542282834649086, 0.0012447139015421271, -0.007700030691921711, -0.003312238957732916, 0.00953623279929161, 0.014980352483689785, -0.010812681168317795, -0.01838846132159233, -0.007577958982437849, 0.01237652637064457, 0.020866697654128075, -0.0018645685631781816, -0.014164045453071594, -0.012315139174461365, 0.005136614199727774, 0.012453999370336533, 0.003793829819187522, -0.0016730219358578324, -4.769795486936346e-05, 0.0007369168451987207, -0.0018518897704780102, -0.005881324876099825, -0.002319430699571967, 0.0058794631622731686, 0.0037500793114304543, -0.0001436885941075161, -0.008734970353543758, -0.0038561224937438965, 0.005961330141872168, 0.0052087870426476, -0.00010462795034982264, -0.0029815207235515118, -0.0010621085530146956, 0.0009197499603033066, 0.0019458510214462876, 0.00014196711708791554, -0.0007875774754211307, 0.000518502201884985, 0.005387341137975454, -0.0013018368044868112, -0.011091485619544983, -0.008646884001791477, 0.009006154723465443, 0.012493353337049484, -0.00020368433615658432, -0.004995657131075859, -0.007577544078230858, 0.0009316778159700334, 0.000794870953541249, 0.0006184916710481048, 0.004734998568892479, 0.0021228098776191473, -0.002880135318264365, -0.005525089800357819, 0.0032725920900702477, 0.004840371664613485, -0.0019755398388952017, -0.009729004465043545, -0.003236723132431507, 0.00672486936673522, 0.007710963021963835, 0.0003880813019350171, -0.009100507944822311, 8.841541784931906e-06, 0.0037732133641839027, 0.0037995504681020975, -0.001128567149862647, -0.003513402072712779, 0.0037100992631167173, 0.0010806332575157285, -0.002340278122574091, -0.00431333901360631, -0.0005931193009018898, 0.003648112528026104, 0.0010167951695621014, -0.0019570565782487392, 0.002889901166781783, 0.004640910308808088, -0.002628596965223551, -0.0059678521938622, -0.005075386259704828, 0.000617349287495017, 0.006073799915611744, 0.004820472560822964, 0.000615448399912566, -0.00404318468645215, -0.002443485427647829, 0.0008557118708267808, 0.00017127634782809764, -0.001336266053840518, -0.0022837950382381678, 0.0008684771019034088, 0.004755127243697643, 0.007041554898023605, 0.00044760300079360604, -0.01013665646314621, -0.007946747355163097, 0.0023610335774719715, 0.00948465708643198, 0.005398101173341274, -0.004761028569191694, -0.005807278212159872, 0.00027400118415243924, 0.0027527152560651302, -0.0011176185216754675, -0.002041649306192994, 0.0018204470397904515, 0.0033799142111092806, 0.001492130453698337, -0.0024338150396943092, -0.0024737075436860323, -0.0020284531638026237, 0.0018189646070823073, 0.0032393678557127714, 0.00032502657268196344, -0.0019289766205474734, -0.0016101745422929525, 0.001686234725639224, 0.0012138679157942533, 0.0005736415041610599, -0.0003789201145991683, 0.0008857075590640306, -0.0021412621717900038, -0.00409601628780365, -0.00035438433405943215, 0.004714470822364092, 0.004159359261393547, -0.003268641186878085, -0.004222352989017963, -0.00027682329528033733, 0.003282349556684494, 0.0034323097206652164, 0.0006896741688251495, -0.001959884073585272, -0.0038942850660532713, -0.0007643250282853842, 0.0028215807396918535, 0.0024842878337949514, 0.00027922107256017625, -0.0037269622553139925, -0.001364465686492622, 0.0008174009271897376, 0.0006161276251077652, -0.0007182668778114021, -0.0010079570347443223, 0.00036198433372192085, 0.0014443969121202826, 0.003726392751559615, 0.0022142957895994186, -0.0028116360772401094, -0.004678755067288876, -0.001377130625769496, 0.001780287129804492, 0.0017401506192982197, 0.0003875100228469819, 0.0012960092863067985, -0.0005176557460799813, -0.0010471773566678166, -0.0019326568581163883, -0.0018246639519929886, 0.002857430838048458, 0.006060809828341007, 0.0003638734924606979, -0.009003986604511738, -0.0070671867579221725, 0.006249819416552782, 0.011443309485912323, 0.0017841773806139827, -0.006722349673509598, -0.007710558362305164, -0.0009319290984421968, 0.008250701241195202, 0.007491444703191519, -0.003938939422369003, -0.006773117929697037, -0.0024336089845746756, 0.0039051147177815437, 0.0016519241034984589, -0.003425918286666274, -0.0009168008109554648, 0.0016342581948265433, 0.004123639315366745, -0.0011855543125420809, -0.00242664129473269, -0.0013840232277289033, 0.0010093352757394314, 0.0011947917519137263, -0.0011810422874987125, -0.0008809853461571038, -0.0019242300186306238, 0.002221213886514306, 0.003081400180235505, 0.0030354508198797703, -0.0006455932161770761, -0.0043176510371267796, -0.0034515103325247765, 0.0010012694401666522, 0.0035750449169427156, 0.0019182407995685935, 0.002097004558891058, -0.004518462345004082, -0.007240049075335264, -0.00014180147263687104, 0.007395275868475437, 0.00437911506742239, -0.0010661331471055746, -0.0028747282922267914, -0.0047391001135110855, 0.00033814136986620724, 0.0029520681127905846, 0.001413628226146102, -3.056541390833445e-05, 0.00021286457194946706, 0.0009427464683540165, -0.002647195942699909, -0.0025687022134661674, 0.001675330800935626, 0.0038535776548087597, -0.0008189350483007729, -0.004124565981328487, -0.0014777523465454578, 0.0018886919133365154, 0.003619607537984848, 0.0005275727598927915, -0.0016086299438029528, -0.0037454250268638134, -0.0010738540440797806, 0.007292750291526318, 0.0018055586842820048, -0.005434212274849415, -0.004573248792439699, 0.004976052790880203, 0.005659048445522785, -0.006323728710412979, -0.0030280896462500095, 0.004178116098046303, 0.007352160755544901, -0.004018938168883324, -0.008769214153289795, -0.0012526826467365026, 0.004485784564167261, 0.006864239927381277, -0.0014399896608665586, -0.004699273034930229, -0.002863220637664199, 0.0005749294068664312, 0.0018480465514585376, 0.00197412958368659, 0.0009417079272679985, -0.0019760665018111467, 0.0006639190251007676, 0.000660139077808708, -0.0003954246349167079, -9.149739344138652e-05, 0.004130139015614986, 0.004191436804831028, -0.00778576685115695, -0.010051168501377106, 0.0004676122043747455, 0.01529857236891985, 0.005157248582690954, -0.012739691883325577, -0.010022051632404327, 0.0045048026368021965, 0.012562260963022709, 0.003236221382394433, -0.004321950487792492, -0.006526823155581951, -0.0011534476652741432, 0.0032338660676032305, 0.0016601566458120942, -0.00028212653705850244, 0.00020902586402371526, 0.0020024508703500032, -0.0012781833065673709, -0.004586187656968832, -0.0010301036527380347, 0.004000301938503981, 0.005422238260507584, -0.0010192859917879105, -0.006525535136461258, -0.007539938669651747, 0.0013769747456535697, 0.011521459557116032, 0.005630027037113905, -0.0023586612660437822, -0.007421028800308704, -0.002930848393589258, 0.0031698322854936123, 0.00238040485419333, 0.0005361767252907157, -3.134702637908049e-05, 0.0003949376114178449, -0.003016687696799636, -0.0036106666084378958, -0.00038501503877341747, 0.004111364483833313, 0.004796130582690239, -0.0015856820391491055, -0.0059351734817028046, -0.0017585183959454298, 0.005556550342589617, 0.0026640002615749836, -0.002867957344278693, -0.0020515129435807467, 0.0007077190093696117, 0.003927781246602535, 0.0030045369639992714, -0.005566323176026344, -0.00785932969301939, 0.0014199501601979136, 0.009400679729878902, 0.002842421643435955, -0.00701378658413887, -0.0028085876256227493, 0.003951211925595999, 0.002779105445370078, -0.003963413182646036, -0.0036547237541526556, 0.0019431458786129951, 0.0031055437866598368, -0.0008202975732274354, -0.0007480850908905268, 0.00018090702360495925, -0.0008412891183979809, 0.00187685654964298, 0.0021878196857869625, -8.38703490444459e-05, -0.001872036955319345, -0.001759568229317665, -0.00015335401985794306, 0.0005335388123057783, -0.0010182805126532912, 0.0007763671455904841, 0.0008296243031509221, -0.00011839988292194903, 6.504997872980312e-05, -0.0008930480107665062, 0.0013568205758929253, -8.504374272888526e-05, -0.0012205705279484391, -0.0020624517928808928, -0.0014149175258353353, 0.002317212987691164, 0.002646287204697728, 0.0008985404274426401, -0.0011486074654385448, -0.0009930646046996117, -0.001192340045236051, 0.001347455196082592, 0.0019237721571698785, 0.00020882263197563589, -0.0016174617921933532, -0.002171879867091775, -0.0008367790724150836, 0.0018284836551174521, 0.0025153092574328184, -0.0023590950295329094, -0.002674512332305312, -0.0003217444464098662, 0.0038657612167298794, 0.002911405172199011, -0.0013089246349409223, -0.0014987608883529902, -0.0016645448049530387, -0.001224188832566142, 0.0005121508147567511, 0.0002255616564070806, 0.001406560419127345, 0.0036526606418192387, 0.0007137955981306732, -0.0020940119866281748, -0.0046021537855267525, -0.0013998186914250255, 0.0035220887511968613, 0.002406773157417774, -5.9672329371096566e-05, -0.0016414023702964187, -0.00018268103303853422, -0.0005956286913715303, 0.0006409210618585348, 0.0016164869302883744, 0.0003258442156948149, -0.001625917968340218, -0.0039055459201335907, 0.0006353709031827748, 0.003463291097432375, 0.0037382193841040134, -0.0017414090689271688, -0.004776120185852051, -0.0014526293380185962, 0.0015387906460091472, 0.0042667328380048275, 0.0009528870577923954, -0.0019537683110684156, -0.0031928736716508865, 0.0008869136800058186, 0.00340202241204679, -0.00026366167003288865, -0.0036734924651682377, -0.0026084810961037874, 0.0021002667490392923, 0.0035713331308215857, 0.002192548243328929, -0.00014492394984699786, -0.0014752581482753158, -0.0022620188537985086, -0.001494869007728994, 0.0012258655624464154, 0.0012548373779281974, -0.0006545993383042514, -0.0008320394554175436, 0.0008247693185694516, 0.0015823844587430358, -0.0005790619179606438, -0.002389279194176197, -0.001986172515898943, 0.003183110384270549, 0.004437403753399849, -0.0005045809666626155, -0.0030045255552977324, -0.0003817070974037051, 0.001502873608842492, -0.0008362621301785111, -0.00283765303902328, -0.0013656200608238578, 0.0018174437573179603, 0.0011812743032351136, 0.0013633966445922852, 0.0007197093218564987, -0.0013642474077641964, -0.0005845517152920365, 0.0010637164814397693, -0.00125118310097605, -0.0012594313593581319, 0.001164770219475031, -0.0009362922282889485, -0.0016489693662151694, 0.000360200647264719, 0.0038170258048921824, 0.0028267165180295706, -0.0027994741685688496, -0.004380212631076574, -0.0005578066338784993, 0.002418800722807646, 0.002390749752521515, 0.0008659607265144587, -0.0017550783231854439, -0.00029883236857131124, -0.0007509090937674046, -0.0013800481101498008, 0.0016102036461234093, 0.0005689769168384373, 0.0003551579429768026, 0.00047184538561850786, -0.0009295179625041783, -0.0013414740096777678, -0.0011032685870304704, 0.0008705428335815668, 0.0012409959454089403, 2.216958273493219e-05, 0.0004760987067129463, -0.0002723920624703169, -0.00010790476517286152, 6.378008401952684e-05, -0.0004765197227243334, 0.0001259436394320801, 8.470202010357752e-05, 0.00030404748395085335, -0.0006226795958355069, -5.615777990897186e-05, 0.002553940284997225, -0.0001774145057424903, -0.0033055846579372883, -0.001532661379314959, 0.0010442950297147036, 0.002324763685464859, -1.3822235814586747e-05, -0.001973319100216031, -0.0012704021064564586, 0.0007499083294533193, 0.0012090600794181228, 0.0016115608159452677, 0.0009687415440566838, -0.002689698478206992, -0.0019054545555263758, 0.0022559911012649536, 0.001211046241223812, -0.0022880169562995434, 6.201918586157262e-05, 0.002092312090098858, 0.0017856359481811523, -0.002155239460989833, -0.0031040154863148928, 0.000595373916439712, 0.001991062890738249, 0.0017148707993328571, -0.0033785554114729166, -0.002562661888077855, 0.00121394416783005, 0.003903347300365567, 0.0036332542076706886, -0.0017986674793064594, -0.004510377533733845], "recording": {"channels": 5, "length": 220500, "sr": 22050, "layout": "planar", "order": ["g0", "g1", "g2", "g3", "ear"]}}